digraph Tree {
node [shape=box] ;
0 [label="X[1] <= -0.091\ngini = 0.5\nsamples = 80\nvalue = [39, 41]"] ;
1 [label="X[0] <= -1.087\ngini = 0.198\nsamples = 36\nvalue = [4, 32]"] ;
0 -> 1 [labeldistance=2.5, labelangle=45, headlabel="True"] ;
2 [label="gini = 0.0\nsamples = 3\nvalue = [3, 0]"] ;
1 -> 2 ;
3 [label="X[1] <= -0.518\ngini = 0.059\nsamples = 33\nvalue = [1, 32]"] ;
1 -> 3 ;
4 [label="gini = 0.0\nsamples = 26\nvalue = [0, 26]"] ;
3 -> 4 ;
5 [label="X[1] <= -0.498\ngini = 0.245\nsamples = 7\nvalue = [1, 6]"] ;
3 -> 5 ;
6 [label="gini = 0.0\nsamples = 1\nvalue = [1, 0]"] ;
5 -> 6 ;
7 [label="gini = 0.0\nsamples = 6\nvalue = [0, 6]"] ;
5 -> 7 ;
8 [label="X[0] <= 1.175\ngini = 0.325\nsamples = 44\nvalue = [35, 9]"] ;
0 -> 8 [labeldistance=2.5, labelangle=-45, headlabel="False"] ;
9 [label="X[1] <= 0.524\ngini = 0.219\nsamples = 40\nvalue = [35, 5]"] ;
8 -> 9 ;
10 [label="X[1] <= 0.401\ngini = 0.43\nsamples = 16\nvalue = [11, 5]"] ;
9 -> 10 ;
11 [label="X[0] <= -0.699\ngini = 0.278\nsamples = 12\nvalue = [10, 2]"] ;
10 -> 11 ;
12 [label="gini = 0.0\nsamples = 6\nvalue = [6, 0]"] ;
11 -> 12 ;
13 [label="X[0] <= 0.003\ngini = 0.444\nsamples = 6\nvalue = [4, 2]"] ;
11 -> 13 ;
14 [label="gini = 0.0\nsamples = 2\nvalue = [0, 2]"] ;
13 -> 14 ;
15 [label="gini = 0.0\nsamples = 4\nvalue = [4, 0]"] ;
13 -> 15 ;
16 [label="X[0] <= -0.379\ngini = 0.375\nsamples = 4\nvalue = [1, 3]"] ;
10 -> 16 ;
17 [label="gini = 0.0\nsamples = 3\nvalue = [0, 3]"] ;
16 -> 17 ;
18 [label="gini = 0.0\nsamples = 1\nvalue = [1, 0]"] ;
16 -> 18 ;
19 [label="gini = 0.0\nsamples = 24\nvalue = [24, 0]"] ;
9 -> 19 ;
20 [label="gini = 0.0\nsamples = 4\nvalue = [0, 4]"] ;
8 -> 20 ;
}